<?xml version="1.0"?>
<PMML version="4.4.1" xmlns="http://www.dmg.org/PMML-4_4" xmlns:xsi="http://www.w3.org/2001/XMLSchema-instance" xsi:schemaLocation="http://www.dmg.org/PMML-4_4 http://www.dmg.org/pmml/v4-4/pmml-4-4.xsd">
 <Header copyright="Copyright (c) 2025 Administrator" description="Random Forest Tree Model">
  <Extension name="user" value="Administrator" extender="SoftwareAG PMML Generator"/>
  <Application name="SoftwareAG PMML Generator" version="2.5.2"/>
  <Timestamp>2025-09-17 21:59:10.257931</Timestamp>
 </Header>
 <DataDictionary numberOfFields="11">
  <DataField name="KTAS_expert" optype="categorical" dataType="string">
   <Value value="1"/>
   <Value value="2"/>
   <Value value="3"/>
   <Value value="4"/>
   <Value value="5"/>
  </DataField>
  <DataField name="Age" optype="continuous" dataType="double"/>
  <DataField name="Sex" optype="continuous" dataType="double"/>
  <DataField name="SBP" optype="continuous" dataType="double"/>
  <DataField name="DBP" optype="continuous" dataType="double"/>
  <DataField name="HR" optype="continuous" dataType="double"/>
  <DataField name="RR" optype="continuous" dataType="double"/>
  <DataField name="BT" optype="continuous" dataType="double"/>
  <DataField name="Saturation" optype="continuous" dataType="double"/>
  <DataField name="Pain" optype="continuous" dataType="double"/>
  <DataField name="Mental" optype="continuous" dataType="double"/>
 </DataDictionary>
 <MiningModel modelName="randomForest_Model" algorithmName="randomForest" functionName="classification">
  <MiningSchema>
   <MiningField name="KTAS_expert" usageType="predicted" invalidValueTreatment="returnInvalid"/>
   <MiningField name="Age" usageType="active" invalidValueTreatment="returnInvalid"/>
   <MiningField name="Sex" usageType="active" invalidValueTreatment="returnInvalid"/>
   <MiningField name="SBP" usageType="active" invalidValueTreatment="returnInvalid"/>
   <MiningField name="DBP" usageType="active" invalidValueTreatment="returnInvalid"/>
   <MiningField name="HR" usageType="active" invalidValueTreatment="returnInvalid"/>
   <MiningField name="RR" usageType="active" invalidValueTreatment="returnInvalid"/>
   <MiningField name="BT" usageType="active" invalidValueTreatment="returnInvalid"/>
   <MiningField name="Saturation" usageType="active" invalidValueTreatment="returnInvalid"/>
   <MiningField name="Pain" usageType="active" invalidValueTreatment="returnInvalid"/>
   <MiningField name="Mental" usageType="active" invalidValueTreatment="returnInvalid"/>
  </MiningSchema>
  <Output>
   <OutputField name="Predicted_KTAS_expert" optype="categorical" dataType="string" feature="predictedValue"/>
   <OutputField name="Probability_1" optype="continuous" dataType="double" feature="probability" value="1"/>
   <OutputField name="Probability_2" optype="continuous" dataType="double" feature="probability" value="2"/>
   <OutputField name="Probability_3" optype="continuous" dataType="double" feature="probability" value="3"/>
   <OutputField name="Probability_4" optype="continuous" dataType="double" feature="probability" value="4"/>
   <OutputField name="Probability_5" optype="continuous" dataType="double" feature="probability" value="5"/>
  </Output>
  <Segmentation multipleModelMethod="majorityVote">
   <Segment id="1">
    <True/>
    <TreeModel modelName="randomForest_Model" functionName="classification" algorithmName="randomForest" splitCharacteristic="binarySplit">
     <MiningSchema>
      <MiningField name="KTAS_expert" usageType="predicted" invalidValueTreatment="asIs"/>
      <MiningField name="Age" usageType="active" invalidValueTreatment="asIs"/>
      <MiningField name="Sex" usageType="active" invalidValueTreatment="asIs"/>
      <MiningField name="SBP" usageType="active" invalidValueTreatment="asIs"/>
      <MiningField name="DBP" usageType="active" invalidValueTreatment="asIs"/>
      <MiningField name="HR" usageType="active" invalidValueTreatment="asIs"/>
      <MiningField name="RR" usageType="active" invalidValueTreatment="asIs"/>
      <MiningField name="BT" usageType="active" invalidValueTreatment="asIs"/>
      <MiningField name="Saturation" usageType="active" invalidValueTreatment="asIs"/>
      <MiningField name="Pain" usageType="active" invalidValueTreatment="asIs"/>
      <MiningField name="Mental" usageType="active" invalidValueTreatment="asIs"/>
     </MiningSchema>
     <Node id="1">
      <True/>
      <Node id="2">
       <SimplePredicate field="Mental" operator="lessOrEqual" value="1.5"/>
       <Node id="4">
        <SimplePredicate field="HR" operator="lessOrEqual" value="65"/>
        <Node id="6">
         <SimplePredicate field="Saturation" operator="lessOrEqual" value="98.5"/>
         <Node id="10">
          <SimplePredicate field="SBP" operator="lessOrEqual" value="115"/>
          <Node id="18" score="4">
           <SimplePredicate field="Age" operator="lessOrEqual" value="54.5"/>
          </Node>
          <Node id="19">
           <SimplePredicate field="Age" operator="greaterThan" value="54.5"/>
           <Node id="30" score="2">
            <SimplePredicate field="DBP" operator="lessOrEqual" value="65"/>
           </Node>
           <Node id="31" score="4">
            <SimplePredicate field="DBP" operator="greaterThan" value="65"/>
           </Node>
          </Node>
         </Node>
         <Node id="11">
          <SimplePredicate field="SBP" operator="greaterThan" value="115"/>
          <Node id="20" score="3">
           <SimplePredicate field="Sex" operator="lessOrEqual" value="1.5"/>
          </Node>
          <Node id="21">
           <SimplePredicate field="Sex" operator="greaterThan" value="1.5"/>
           <Node id="32" score="3">
            <SimplePredicate field="HR" operator="lessOrEqual" value="62.5"/>
           </Node>
           <Node id="33" score="2">
            <SimplePredicate field="HR" operator="greaterThan" value="62.5"/>
           </Node>
          </Node>
         </Node>
        </Node>
        <Node id="7">
         <SimplePredicate field="Saturation" operator="greaterThan" value="98.5"/>
         <Node id="12">
          <SimplePredicate field="BT" operator="lessOrEqual" value="36.75"/>
          <Node id="22">
           <SimplePredicate field="Age" operator="lessOrEqual" value="68.5"/>
           <Node id="34" score="2">
            <SimplePredicate field="HR" operator="lessOrEqual" value="63"/>
           </Node>
           <Node id="35">
            <SimplePredicate field="HR" operator="greaterThan" value="63"/>
            <Node id="44" score="2">
             <SimplePredicate field="Saturation" operator="lessOrEqual" value="99.5"/>
            </Node>
            <Node id="45" score="2">
             <SimplePredicate field="Saturation" operator="greaterThan" value="99.5"/>
            </Node>
           </Node>
          </Node>
          <Node id="23" score="3">
           <SimplePredicate field="Age" operator="greaterThan" value="68.5"/>
          </Node>
         </Node>
         <Node id="13" score="3">
          <SimplePredicate field="BT" operator="greaterThan" value="36.75"/>
         </Node>
        </Node>
       </Node>
       <Node id="5">
        <SimplePredicate field="HR" operator="greaterThan" value="65"/>
        <Node id="8">
         <SimplePredicate field="Saturation" operator="lessOrEqual" value="95.5"/>
         <Node id="14">
          <SimplePredicate field="SBP" operator="lessOrEqual" value="105"/>
          <Node id="24">
           <SimplePredicate field="BT" operator="lessOrEqual" value="36.5999999999999943"/>
           <Node id="36" score="2">
            <SimplePredicate field="Saturation" operator="lessOrEqual" value="94.5"/>
           </Node>
           <Node id="37" score="4">
            <SimplePredicate field="Saturation" operator="greaterThan" value="94.5"/>
           </Node>
          </Node>
          <Node id="25" score="3">
           <SimplePredicate field="BT" operator="greaterThan" value="36.5999999999999943"/>
          </Node>
         </Node>
         <Node id="15" score="2">
          <SimplePredicate field="SBP" operator="greaterThan" value="105"/>
         </Node>
        </Node>
        <Node id="9">
         <SimplePredicate field="Saturation" operator="greaterThan" value="95.5"/>
         <Node id="16">
          <SimplePredicate field="RR" operator="lessOrEqual" value="23"/>
          <Node id="26">
           <SimplePredicate field="Age" operator="lessOrEqual" value="44.5"/>
           <Node id="38">
            <SimplePredicate field="DBP" operator="lessOrEqual" value="75"/>
            <Node id="46" score="4">
             <SimplePredicate field="Saturation" operator="lessOrEqual" value="97.5"/>
            </Node>
            <Node id="47">
             <SimplePredicate field="Saturation" operator="greaterThan" value="97.5"/>
             <Node id="52" score="2">
              <SimplePredicate field="SBP" operator="lessOrEqual" value="90"/>
             </Node>
             <Node id="53">
              <SimplePredicate field="SBP" operator="greaterThan" value="90"/>
              <Node id="62">
               <SimplePredicate field="Age" operator="lessOrEqual" value="42.5"/>
               <Node id="76">
                <SimplePredicate field="DBP" operator="lessOrEqual" value="65"/>
                <Node id="96" score="4">
                 <SimplePredicate field="Age" operator="lessOrEqual" value="18"/>
                </Node>
                <Node id="97">
                 <SimplePredicate field="Age" operator="greaterThan" value="18"/>
                 <Node id="124">
                  <SimplePredicate field="HR" operator="lessOrEqual" value="85"/>
                  <Node id="154" score="4">
                   <SimplePredicate field="Sex" operator="lessOrEqual" value="1.5"/>
                  </Node>
                  <Node id="155">
                   <SimplePredicate field="Sex" operator="greaterThan" value="1.5"/>
                   <Node id="182" score="4">
                    <SimplePredicate field="RR" operator="lessOrEqual" value="21"/>
                   </Node>
                   <Node id="183" score="3">
                    <SimplePredicate field="RR" operator="greaterThan" value="21"/>
                   </Node>
                  </Node>
                 </Node>
                 <Node id="125" score="3">
                  <SimplePredicate field="HR" operator="greaterThan" value="85"/>
                 </Node>
                </Node>
               </Node>
               <Node id="77">
                <SimplePredicate field="DBP" operator="greaterThan" value="65"/>
                <Node id="98">
                 <SimplePredicate field="Sex" operator="lessOrEqual" value="1.5"/>
                 <Node id="126" score="4">
                  <SimplePredicate field="RR" operator="lessOrEqual" value="19"/>
                 </Node>
                 <Node id="127">
                  <SimplePredicate field="RR" operator="greaterThan" value="19"/>
                  <Node id="156" score="3">
                   <SimplePredicate field="HR" operator="lessOrEqual" value="77"/>
                  </Node>
                  <Node id="157" score="4">
                   <SimplePredicate field="HR" operator="greaterThan" value="77"/>
                  </Node>
                 </Node>
                </Node>
                <Node id="99">
                 <SimplePredicate field="Sex" operator="greaterThan" value="1.5"/>
                 <Node id="128">
                  <SimplePredicate field="RR" operator="lessOrEqual" value="21"/>
                  <Node id="158" score="4">
                   <SimplePredicate field="BT" operator="lessOrEqual" value="36.4500000000000028"/>
                  </Node>
                  <Node id="159">
                   <SimplePredicate field="BT" operator="greaterThan" value="36.4500000000000028"/>
                   <Node id="184" score="4">
                    <SimplePredicate field="Age" operator="lessOrEqual" value="26.5"/>
                   </Node>
                   <Node id="185" score="3">
                    <SimplePredicate field="Age" operator="greaterThan" value="26.5"/>
                   </Node>
                  </Node>
                 </Node>
                 <Node id="129" score="3">
                  <SimplePredicate field="RR" operator="greaterThan" value="21"/>
                 </Node>
                </Node>
               </Node>
              </Node>
              <Node id="63">
               <SimplePredicate field="Age" operator="greaterThan" value="42.5"/>
               <Node id="78" score="3">
                <SimplePredicate field="Sex" operator="lessOrEqual" value="1.5"/>
               </Node>
               <Node id="79">
                <SimplePredicate field="Sex" operator="greaterThan" value="1.5"/>
                <Node id="100" score="3">
                 <SimplePredicate field="BT" operator="lessOrEqual" value="37.0499999999999972"/>
                </Node>
                <Node id="101" score="4">
                 <SimplePredicate field="BT" operator="greaterThan" value="37.0499999999999972"/>
                </Node>
               </Node>
              </Node>
             </Node>
            </Node>
           </Node>
           <Node id="39">
            <SimplePredicate field="DBP" operator="greaterThan" value="75"/>
            <Node id="48">
             <SimplePredicate field="Age" operator="lessOrEqual" value="30.5"/>
             <Node id="54" score="2">
              <SimplePredicate field="BT" operator="lessOrEqual" value="36.1499999999999986"/>
             </Node>
             <Node id="55">
              <SimplePredicate field="BT" operator="greaterThan" value="36.1499999999999986"/>
              <Node id="64" score="2">
               <SimplePredicate field="SBP" operator="lessOrEqual" value="115"/>
              </Node>
              <Node id="65">
               <SimplePredicate field="SBP" operator="greaterThan" value="115"/>
               <Node id="80">
                <SimplePredicate field="HR" operator="lessOrEqual" value="79"/>
                <Node id="102">
                 <SimplePredicate field="SBP" operator="lessOrEqual" value="125"/>
                 <Node id="130" score="2">
                  <SimplePredicate field="Age" operator="lessOrEqual" value="28"/>
                 </Node>
                 <Node id="131" score="3">
                  <SimplePredicate field="Age" operator="greaterThan" value="28"/>
                 </Node>
                </Node>
                <Node id="103" score="3">
                 <SimplePredicate field="SBP" operator="greaterThan" value="125"/>
                </Node>
               </Node>
               <Node id="81">
                <SimplePredicate field="HR" operator="greaterThan" value="79"/>
                <Node id="104" score="3">
                 <SimplePredicate field="DBP" operator="lessOrEqual" value="85"/>
                </Node>
                <Node id="105" score="4">
                 <SimplePredicate field="DBP" operator="greaterThan" value="85"/>
                </Node>
               </Node>
              </Node>
             </Node>
            </Node>
            <Node id="49">
             <SimplePredicate field="Age" operator="greaterThan" value="30.5"/>
             <Node id="56">
              <SimplePredicate field="HR" operator="lessOrEqual" value="87.5"/>
              <Node id="66">
               <SimplePredicate field="HR" operator="lessOrEqual" value="81"/>
               <Node id="82" score="2">
                <SimplePredicate field="RR" operator="lessOrEqual" value="19"/>
               </Node>
               <Node id="83">
                <SimplePredicate field="RR" operator="greaterThan" value="19"/>
                <Node id="106">
                 <SimplePredicate field="SBP" operator="lessOrEqual" value="135"/>
                 <Node id="132">
                  <SimplePredicate field="HR" operator="lessOrEqual" value="76"/>
                  <Node id="160" score="4">
                   <SimplePredicate field="Age" operator="lessOrEqual" value="43.5"/>
                  </Node>
                  <Node id="161" score="3">
                   <SimplePredicate field="Age" operator="greaterThan" value="43.5"/>
                  </Node>
                 </Node>
                 <Node id="133">
                  <SimplePredicate field="HR" operator="greaterThan" value="76"/>
                  <Node id="162" score="5">
                   <SimplePredicate field="BT" operator="lessOrEqual" value="36.3499999999999943"/>
                  </Node>
                  <Node id="163" score="4">
                   <SimplePredicate field="BT" operator="greaterThan" value="36.3499999999999943"/>
                  </Node>
                 </Node>
                </Node>
                <Node id="107" score="4">
                 <SimplePredicate field="SBP" operator="greaterThan" value="135"/>
                </Node>
               </Node>
              </Node>
              <Node id="67" score="3">
               <SimplePredicate field="HR" operator="greaterThan" value="81"/>
              </Node>
             </Node>
             <Node id="57">
              <SimplePredicate field="HR" operator="greaterThan" value="87.5"/>
              <Node id="68">
               <SimplePredicate field="Saturation" operator="lessOrEqual" value="98.5"/>
               <Node id="84" score="4">
                <SimplePredicate field="HR" operator="lessOrEqual" value="95"/>
               </Node>
               <Node id="85">
                <SimplePredicate field="HR" operator="greaterThan" value="95"/>
                <Node id="108" score="3">
                 <SimplePredicate field="SBP" operator="lessOrEqual" value="135"/>
                </Node>
                <Node id="109">
                 <SimplePredicate field="SBP" operator="greaterThan" value="135"/>
                 <Node id="134" score="4">
                  <SimplePredicate field="Sex" operator="lessOrEqual" value="1.5"/>
                 </Node>
                 <Node id="135" score="3">
                  <SimplePredicate field="Sex" operator="greaterThan" value="1.5"/>
                 </Node>
                </Node>
               </Node>
              </Node>
              <Node id="69">
               <SimplePredicate field="Saturation" operator="greaterThan" value="98.5"/>
               <Node id="86">
                <SimplePredicate field="Sex" operator="lessOrEqual" value="1.5"/>
                <Node id="110" score="4">
                 <SimplePredicate field="SBP" operator="lessOrEqual" value="125"/>
                </Node>
                <Node id="111" score="5">
                 <SimplePredicate field="SBP" operator="greaterThan" value="125"/>
                </Node>
               </Node>
               <Node id="87" score="4">
                <SimplePredicate field="Sex" operator="greaterThan" value="1.5"/>
               </Node>
              </Node>
             </Node>
            </Node>
           </Node>
          </Node>
          <Node id="27">
           <SimplePredicate field="Age" operator="greaterThan" value="44.5"/>
           <Node id="40" score="4">
            <SimplePredicate field="HR" operator="lessOrEqual" value="66.5"/>
           </Node>
           <Node id="41">
            <SimplePredicate field="HR" operator="greaterThan" value="66.5"/>
            <Node id="50">
             <SimplePredicate field="HR" operator="lessOrEqual" value="89"/>
             <Node id="58">
              <SimplePredicate field="BT" operator="lessOrEqual" value="36.5499999999999972"/>
              <Node id="70">
               <SimplePredicate field="Sex" operator="lessOrEqual" value="1.5"/>
               <Node id="88">
                <SimplePredicate field="SBP" operator="lessOrEqual" value="165"/>
                <Node id="112">
                 <SimplePredicate field="HR" operator="lessOrEqual" value="79"/>
                 <Node id="136">
                  <SimplePredicate field="SBP" operator="lessOrEqual" value="145"/>
                  <Node id="164">
                   <SimplePredicate field="RR" operator="lessOrEqual" value="21"/>
                   <Node id="186">
                    <SimplePredicate field="SBP" operator="lessOrEqual" value="115"/>
                    <Node id="196">
                     <SimplePredicate field="BT" operator="lessOrEqual" value="36.4500000000000028"/>
                     <Node id="202" score="4">
                      <SimplePredicate field="SBP" operator="lessOrEqual" value="105"/>
                     </Node>
                     <Node id="203" score="3">
                      <SimplePredicate field="SBP" operator="greaterThan" value="105"/>
                     </Node>
                    </Node>
                    <Node id="197" score="3">
                     <SimplePredicate field="BT" operator="greaterThan" value="36.4500000000000028"/>
                    </Node>
                   </Node>
                   <Node id="187">
                    <SimplePredicate field="SBP" operator="greaterThan" value="115"/>
                    <Node id="198">
                     <SimplePredicate field="Saturation" operator="lessOrEqual" value="98.5"/>
                     <Node id="204" score="4">
                      <SimplePredicate field="BT" operator="lessOrEqual" value="36.25"/>
                     </Node>
                     <Node id="205">
                      <SimplePredicate field="BT" operator="greaterThan" value="36.25"/>
                      <Node id="206">
                       <SimplePredicate field="BT" operator="lessOrEqual" value="36.3499999999999943"/>
                       <Node id="208" score="2">
                        <SimplePredicate field="SBP" operator="lessOrEqual" value="135"/>
                       </Node>
                       <Node id="209" score="4">
                        <SimplePredicate field="SBP" operator="greaterThan" value="135"/>
                       </Node>
                      </Node>
                      <Node id="207" score="4">
                       <SimplePredicate field="BT" operator="greaterThan" value="36.3499999999999943"/>
                      </Node>
                     </Node>
                    </Node>
                    <Node id="199" score="2">
                     <SimplePredicate field="Saturation" operator="greaterThan" value="98.5"/>
                    </Node>
                   </Node>
                  </Node>
                  <Node id="165" score="3">
                   <SimplePredicate field="RR" operator="greaterThan" value="21"/>
                  </Node>
                 </Node>
                 <Node id="137" score="2">
                  <SimplePredicate field="SBP" operator="greaterThan" value="145"/>
                 </Node>
                </Node>
                <Node id="113">
                 <SimplePredicate field="HR" operator="greaterThan" value="79"/>
                 <Node id="138">
                  <SimplePredicate field="BT" operator="lessOrEqual" value="36.1000000000000014"/>
                  <Node id="166">
                   <SimplePredicate field="Age" operator="lessOrEqual" value="67"/>
                   <Node id="188" score="3">
                    <SimplePredicate field="SBP" operator="lessOrEqual" value="125"/>
                   </Node>
                   <Node id="189" score="4">
                    <SimplePredicate field="SBP" operator="greaterThan" value="125"/>
                   </Node>
                  </Node>
                  <Node id="167" score="3">
                   <SimplePredicate field="Age" operator="greaterThan" value="67"/>
                  </Node>
                 </Node>
                 <Node id="139">
                  <SimplePredicate field="BT" operator="greaterThan" value="36.1000000000000014"/>
                  <Node id="168" score="4">
                   <SimplePredicate field="SBP" operator="lessOrEqual" value="145"/>
                  </Node>
                  <Node id="169" score="3">
                   <SimplePredicate field="SBP" operator="greaterThan" value="145"/>
                  </Node>
                 </Node>
                </Node>
               </Node>
               <Node id="89" score="4">
                <SimplePredicate field="SBP" operator="greaterThan" value="165"/>
               </Node>
              </Node>
              <Node id="71">
               <SimplePredicate field="Sex" operator="greaterThan" value="1.5"/>
               <Node id="90">
                <SimplePredicate field="BT" operator="lessOrEqual" value="36.4500000000000028"/>
                <Node id="114">
                 <SimplePredicate field="SBP" operator="lessOrEqual" value="135"/>
                 <Node id="140">
                  <SimplePredicate field="HR" operator="lessOrEqual" value="80"/>
                  <Node id="170" score="2">
                   <SimplePredicate field="HR" operator="lessOrEqual" value="68.5"/>
                  </Node>
                  <Node id="171">
                   <SimplePredicate field="HR" operator="greaterThan" value="68.5"/>
                   <Node id="190" score="3">
                    <SimplePredicate field="BT" operator="lessOrEqual" value="36.25"/>
                   </Node>
                   <Node id="191">
                    <SimplePredicate field="BT" operator="greaterThan" value="36.25"/>
                    <Node id="200" score="3">
                     <SimplePredicate field="Age" operator="lessOrEqual" value="53.5"/>
                    </Node>
                    <Node id="201" score="4">
                     <SimplePredicate field="Age" operator="greaterThan" value="53.5"/>
                    </Node>
                   </Node>
                  </Node>
                 </Node>
                 <Node id="141">
                  <SimplePredicate field="HR" operator="greaterThan" value="80"/>
                  <Node id="172" score="4">
                   <SimplePredicate field="HR" operator="lessOrEqual" value="86"/>
                  </Node>
                  <Node id="173" score="5">
                   <SimplePredicate field="HR" operator="greaterThan" value="86"/>
                  </Node>
                 </Node>
                </Node>
                <Node id="115">
                 <SimplePredicate field="SBP" operator="greaterThan" value="135"/>
                 <Node id="142">
                  <SimplePredicate field="HR" operator="lessOrEqual" value="86"/>
                  <Node id="174" score="4">
                   <SimplePredicate field="Age" operator="lessOrEqual" value="50.5"/>
                  </Node>
                  <Node id="175" score="2">
                   <SimplePredicate field="Age" operator="greaterThan" value="50.5"/>
                  </Node>
                 </Node>
                 <Node id="143" score="4">
                  <SimplePredicate field="HR" operator="greaterThan" value="86"/>
                 </Node>
                </Node>
               </Node>
               <Node id="91">
                <SimplePredicate field="BT" operator="greaterThan" value="36.4500000000000028"/>
                <Node id="116">
                 <SimplePredicate field="Age" operator="lessOrEqual" value="55.5"/>
                 <Node id="144" score="3">
                  <SimplePredicate field="Saturation" operator="lessOrEqual" value="98.5"/>
                 </Node>
                 <Node id="145" score="4">
                  <SimplePredicate field="Saturation" operator="greaterThan" value="98.5"/>
                 </Node>
                </Node>
                <Node id="117" score="3">
                 <SimplePredicate field="Age" operator="greaterThan" value="55.5"/>
                </Node>
               </Node>
              </Node>
             </Node>
             <Node id="59">
              <SimplePredicate field="BT" operator="greaterThan" value="36.5499999999999972"/>
              <Node id="72" score="2">
               <SimplePredicate field="HR" operator="lessOrEqual" value="70"/>
              </Node>
              <Node id="73">
               <SimplePredicate field="HR" operator="greaterThan" value="70"/>
               <Node id="92">
                <SimplePredicate field="HR" operator="lessOrEqual" value="83"/>
                <Node id="118">
                 <SimplePredicate field="RR" operator="lessOrEqual" value="21"/>
                 <Node id="146">
                  <SimplePredicate field="SBP" operator="lessOrEqual" value="105"/>
                  <Node id="176">
                   <SimplePredicate field="HR" operator="lessOrEqual" value="75"/>
                   <Node id="192" score="4">
                    <SimplePredicate field="Saturation" operator="lessOrEqual" value="96.5"/>
                   </Node>
                   <Node id="193" score="5">
                    <SimplePredicate field="Saturation" operator="greaterThan" value="96.5"/>
                   </Node>
                  </Node>
                  <Node id="177" score="4">
                   <SimplePredicate field="HR" operator="greaterThan" value="75"/>
                  </Node>
                 </Node>
                 <Node id="147" score="4">
                  <SimplePredicate field="SBP" operator="greaterThan" value="105"/>
                 </Node>
                </Node>
                <Node id="119" score="3">
                 <SimplePredicate field="RR" operator="greaterThan" value="21"/>
                </Node>
               </Node>
               <Node id="93">
                <SimplePredicate field="HR" operator="greaterThan" value="83"/>
                <Node id="120">
                 <SimplePredicate field="HR" operator="lessOrEqual" value="87"/>
                 <Node id="148" score="4">
                  <SimplePredicate field="RR" operator="lessOrEqual" value="19"/>
                 </Node>
                 <Node id="149" score="2">
                  <SimplePredicate field="RR" operator="greaterThan" value="19"/>
                 </Node>
                </Node>
                <Node id="121" score="4">
                 <SimplePredicate field="HR" operator="greaterThan" value="87"/>
                </Node>
               </Node>
              </Node>
             </Node>
            </Node>
            <Node id="51">
             <SimplePredicate field="HR" operator="greaterThan" value="89"/>
             <Node id="60" score="3">
              <SimplePredicate field="SBP" operator="lessOrEqual" value="105"/>
             </Node>
             <Node id="61">
              <SimplePredicate field="SBP" operator="greaterThan" value="105"/>
              <Node id="74" score="2">
               <SimplePredicate field="Age" operator="lessOrEqual" value="46"/>
              </Node>
              <Node id="75">
               <SimplePredicate field="Age" operator="greaterThan" value="46"/>
               <Node id="94">
                <SimplePredicate field="BT" operator="lessOrEqual" value="36.6500000000000057"/>
                <Node id="122">
                 <SimplePredicate field="Sex" operator="lessOrEqual" value="1.5"/>
                 <Node id="150" score="4">
                  <SimplePredicate field="Saturation" operator="lessOrEqual" value="97.5"/>
                 </Node>
                 <Node id="151">
                  <SimplePredicate field="Saturation" operator="greaterThan" value="97.5"/>
                  <Node id="178">
                   <SimplePredicate field="SBP" operator="lessOrEqual" value="125"/>
                   <Node id="194" score="3">
                    <SimplePredicate field="SBP" operator="lessOrEqual" value="115"/>
                   </Node>
                   <Node id="195" score="2">
                    <SimplePredicate field="SBP" operator="greaterThan" value="115"/>
                   </Node>
                  </Node>
                  <Node id="179" score="5">
                   <SimplePredicate field="SBP" operator="greaterThan" value="125"/>
                  </Node>
                 </Node>
                </Node>
                <Node id="123">
                 <SimplePredicate field="Sex" operator="greaterThan" value="1.5"/>
                 <Node id="152" score="4">
                  <SimplePredicate field="HR" operator="lessOrEqual" value="99"/>
                 </Node>
                 <Node id="153">
                  <SimplePredicate field="HR" operator="greaterThan" value="99"/>
                  <Node id="180" score="3">
                   <SimplePredicate field="Saturation" operator="lessOrEqual" value="97.5"/>
                  </Node>
                  <Node id="181" score="2">
                   <SimplePredicate field="Saturation" operator="greaterThan" value="97.5"/>
                  </Node>
                 </Node>
                </Node>
               </Node>
               <Node id="95" score="3">
                <SimplePredicate field="BT" operator="greaterThan" value="36.6500000000000057"/>
               </Node>
              </Node>
             </Node>
            </Node>
           </Node>
          </Node>
         </Node>
         <Node id="17">
          <SimplePredicate field="RR" operator="greaterThan" value="23"/>
          <Node id="28" score="3">
           <SimplePredicate field="HR" operator="lessOrEqual" value="96"/>
          </Node>
          <Node id="29">
           <SimplePredicate field="HR" operator="greaterThan" value="96"/>
           <Node id="42" score="4">
            <SimplePredicate field="DBP" operator="lessOrEqual" value="63"/>
           </Node>
           <Node id="43" score="2">
            <SimplePredicate field="DBP" operator="greaterThan" value="63"/>
           </Node>
          </Node>
         </Node>
        </Node>
       </Node>
      </Node>
      <Node id="3" score="1">
       <SimplePredicate field="Mental" operator="greaterThan" value="1.5"/>
      </Node>
     </Node>
    </TreeModel>
   </Segment>
   <Segment id="2">
    <True/>
    <TreeModel modelName="randomForest_Model" functionName="classification" algorithmName="randomForest" splitCharacteristic="binarySplit">
     <MiningSchema>
      <MiningField name="KTAS_expert" usageType="predicted" invalidValueTreatment="asIs"/>
      <MiningField name="Age" usageType="active" invalidValueTreatment="asIs"/>
      <MiningField name="Sex" usageType="active" invalidValueTreatment="asIs"/>
      <MiningField name="SBP" usageType="active" invalidValueTreatment="asIs"/>
      <MiningField name="DBP" usageType="active" invalidValueTreatment="asIs"/>
      <MiningField name="HR" usageType="active" invalidValueTreatment="asIs"/>
      <MiningField name="RR" usageType="active" invalidValueTreatment="asIs"/>
      <MiningField name="BT" usageType="active" invalidValueTreatment="asIs"/>
      <MiningField name="Saturation" usageType="active" invalidValueTreatment="asIs"/>
      <MiningField name="Pain" usageType="active" invalidValueTreatment="asIs"/>
      <MiningField name="Mental" usageType="active" invalidValueTreatment="asIs"/>
     </MiningSchema>
     <Node id="1">
      <True/>
      <Node id="2">
       <SimplePredicate field="RR" operator="lessOrEqual" value="25"/>
       <Node id="4" score="2">
        <SimplePredicate field="Saturation" operator="lessOrEqual" value="90.5"/>
       </Node>
       <Node id="5">
        <SimplePredicate field="Saturation" operator="greaterThan" value="90.5"/>
        <Node id="6">
         <SimplePredicate field="DBP" operator="lessOrEqual" value="85"/>
         <Node id="8">
          <SimplePredicate field="SBP" operator="lessOrEqual" value="135"/>
          <Node id="12">
           <SimplePredicate field="HR" operator="lessOrEqual" value="73.5"/>
           <Node id="20">
            <SimplePredicate field="DBP" operator="lessOrEqual" value="65"/>
            <Node id="32">
             <SimplePredicate field="BT" operator="lessOrEqual" value="36.2999999999999972"/>
             <Node id="48" score="2">
              <SimplePredicate field="Age" operator="lessOrEqual" value="68"/>
             </Node>
             <Node id="49">
              <SimplePredicate field="Age" operator="greaterThan" value="68"/>
              <Node id="64" score="3">
               <SimplePredicate field="Age" operator="lessOrEqual" value="85.5"/>
              </Node>
              <Node id="65" score="2">
               <SimplePredicate field="Age" operator="greaterThan" value="85.5"/>
              </Node>
             </Node>
            </Node>
            <Node id="33">
             <SimplePredicate field="BT" operator="greaterThan" value="36.2999999999999972"/>
             <Node id="50" score="4">
              <SimplePredicate field="Sex" operator="lessOrEqual" value="1.5"/>
             </Node>
             <Node id="51">
              <SimplePredicate field="Sex" operator="greaterThan" value="1.5"/>
              <Node id="66">
               <SimplePredicate field="Saturation" operator="lessOrEqual" value="98.5"/>
               <Node id="80" score="2">
                <SimplePredicate field="HR" operator="lessOrEqual" value="66"/>
               </Node>
               <Node id="81" score="5">
                <SimplePredicate field="HR" operator="greaterThan" value="66"/>
               </Node>
              </Node>
              <Node id="67" score="2">
               <SimplePredicate field="Saturation" operator="greaterThan" value="98.5"/>
              </Node>
             </Node>
            </Node>
           </Node>
           <Node id="21">
            <SimplePredicate field="DBP" operator="greaterThan" value="65"/>
            <Node id="34" score="3">
             <SimplePredicate field="Age" operator="lessOrEqual" value="19.5"/>
            </Node>
            <Node id="35">
             <SimplePredicate field="Age" operator="greaterThan" value="19.5"/>
             <Node id="52">
              <SimplePredicate field="SBP" operator="lessOrEqual" value="125"/>
              <Node id="68">
               <SimplePredicate field="Saturation" operator="lessOrEqual" value="98.5"/>
               <Node id="82" score="2">
                <SimplePredicate field="BT" operator="lessOrEqual" value="36.1000000000000014"/>
               </Node>
               <Node id="83">
                <SimplePredicate field="BT" operator="greaterThan" value="36.1000000000000014"/>
                <Node id="98">
                 <SimplePredicate field="Age" operator="lessOrEqual" value="75.5"/>
                 <Node id="118" score="3">
                  <SimplePredicate field="HR" operator="lessOrEqual" value="55.5"/>
                 </Node>
                 <Node id="119">
                  <SimplePredicate field="HR" operator="greaterThan" value="55.5"/>
                  <Node id="140">
                   <SimplePredicate field="Age" operator="lessOrEqual" value="33.5"/>
                   <Node id="158" score="4">
                    <SimplePredicate field="BT" operator="lessOrEqual" value="36.5"/>
                   </Node>
                   <Node id="159" score="2">
                    <SimplePredicate field="BT" operator="greaterThan" value="36.5"/>
                   </Node>
                  </Node>
                  <Node id="141" score="4">
                   <SimplePredicate field="Age" operator="greaterThan" value="33.5"/>
                  </Node>
                 </Node>
                </Node>
                <Node id="99">
                 <SimplePredicate field="Age" operator="greaterThan" value="75.5"/>
                 <Node id="120" score="2">
                  <SimplePredicate field="HR" operator="lessOrEqual" value="64"/>
                 </Node>
                 <Node id="121" score="4">
                  <SimplePredicate field="HR" operator="greaterThan" value="64"/>
                 </Node>
                </Node>
               </Node>
              </Node>
              <Node id="69">
               <SimplePredicate field="Saturation" operator="greaterThan" value="98.5"/>
               <Node id="84">
                <SimplePredicate field="HR" operator="lessOrEqual" value="69"/>
                <Node id="100" score="4">
                 <SimplePredicate field="Sex" operator="lessOrEqual" value="1.5"/>
                </Node>
                <Node id="101">
                 <SimplePredicate field="Sex" operator="greaterThan" value="1.5"/>
                 <Node id="122" score="4">
                  <SimplePredicate field="SBP" operator="lessOrEqual" value="115"/>
                 </Node>
                 <Node id="123" score="2">
                  <SimplePredicate field="SBP" operator="greaterThan" value="115"/>
                 </Node>
                </Node>
               </Node>
               <Node id="85" score="2">
                <SimplePredicate field="HR" operator="greaterThan" value="69"/>
               </Node>
              </Node>
             </Node>
             <Node id="53" score="4">
              <SimplePredicate field="SBP" operator="greaterThan" value="125"/>
             </Node>
            </Node>
           </Node>
          </Node>
          <Node id="13">
           <SimplePredicate field="HR" operator="greaterThan" value="73.5"/>
           <Node id="22" score="4">
            <SimplePredicate field="Age" operator="lessOrEqual" value="19.5"/>
           </Node>
           <Node id="23">
            <SimplePredicate field="Age" operator="greaterThan" value="19.5"/>
            <Node id="36">
             <SimplePredicate field="SBP" operator="lessOrEqual" value="95"/>
             <Node id="54" score="3">
              <SimplePredicate field="Saturation" operator="lessOrEqual" value="94.5"/>
             </Node>
             <Node id="55" score="2">
              <SimplePredicate field="Saturation" operator="greaterThan" value="94.5"/>
             </Node>
            </Node>
            <Node id="37">
             <SimplePredicate field="SBP" operator="greaterThan" value="95"/>
             <Node id="56">
              <SimplePredicate field="BT" operator="lessOrEqual" value="36.3499999999999943"/>
              <Node id="70">
               <SimplePredicate field="HR" operator="lessOrEqual" value="98.5"/>
               <Node id="86">
                <SimplePredicate field="Saturation" operator="lessOrEqual" value="97.5"/>
                <Node id="102">
                 <SimplePredicate field="BT" operator="lessOrEqual" value="36.0499999999999972"/>
                 <Node id="124" score="4">
                  <SimplePredicate field="Saturation" operator="lessOrEqual" value="96.5"/>
                 </Node>
                 <Node id="125">
                  <SimplePredicate field="Saturation" operator="greaterThan" value="96.5"/>
                  <Node id="142" score="4">
                   <SimplePredicate field="Age" operator="lessOrEqual" value="28"/>
                  </Node>
                  <Node id="143" score="5">
                   <SimplePredicate field="Age" operator="greaterThan" value="28"/>
                  </Node>
                 </Node>
                </Node>
                <Node id="103" score="4">
                 <SimplePredicate field="BT" operator="greaterThan" value="36.0499999999999972"/>
                </Node>
               </Node>
               <Node id="87">
                <SimplePredicate field="Saturation" operator="greaterThan" value="97.5"/>
                <Node id="104">
                 <SimplePredicate field="SBP" operator="lessOrEqual" value="115"/>
                 <Node id="126" score="3">
                  <SimplePredicate field="Age" operator="lessOrEqual" value="25.5"/>
                 </Node>
                 <Node id="127">
                  <SimplePredicate field="Age" operator="greaterThan" value="25.5"/>
                  <Node id="144">
                   <SimplePredicate field="Sex" operator="lessOrEqual" value="1.5"/>
                   <Node id="160" score="4">
                    <SimplePredicate field="HR" operator="lessOrEqual" value="85"/>
                   </Node>
                   <Node id="161" score="3">
                    <SimplePredicate field="HR" operator="greaterThan" value="85"/>
                   </Node>
                  </Node>
                  <Node id="145" score="4">
                   <SimplePredicate field="Sex" operator="greaterThan" value="1.5"/>
                  </Node>
                 </Node>
                </Node>
                <Node id="105" score="3">
                 <SimplePredicate field="SBP" operator="greaterThan" value="115"/>
                </Node>
               </Node>
              </Node>
              <Node id="71">
               <SimplePredicate field="HR" operator="greaterThan" value="98.5"/>
               <Node id="88" score="2">
                <SimplePredicate field="BT" operator="lessOrEqual" value="36.1500000000000057"/>
               </Node>
               <Node id="89">
                <SimplePredicate field="BT" operator="greaterThan" value="36.1500000000000057"/>
                <Node id="106" score="2">
                 <SimplePredicate field="SBP" operator="lessOrEqual" value="115"/>
                </Node>
                <Node id="107">
                 <SimplePredicate field="SBP" operator="greaterThan" value="115"/>
                 <Node id="128" score="4">
                  <SimplePredicate field="BT" operator="lessOrEqual" value="36.25"/>
                 </Node>
                 <Node id="129" score="3">
                  <SimplePredicate field="BT" operator="greaterThan" value="36.25"/>
                 </Node>
                </Node>
               </Node>
              </Node>
             </Node>
             <Node id="57">
              <SimplePredicate field="BT" operator="greaterThan" value="36.3499999999999943"/>
              <Node id="72">
               <SimplePredicate field="BT" operator="lessOrEqual" value="36.4500000000000028"/>
               <Node id="90">
                <SimplePredicate field="RR" operator="lessOrEqual" value="23"/>
                <Node id="108">
                 <SimplePredicate field="Age" operator="lessOrEqual" value="77"/>
                 <Node id="130">
                  <SimplePredicate field="HR" operator="lessOrEqual" value="85"/>
                  <Node id="146" score="2">
                   <SimplePredicate field="RR" operator="lessOrEqual" value="19"/>
                  </Node>
                  <Node id="147">
                   <SimplePredicate field="RR" operator="greaterThan" value="19"/>
                   <Node id="162" score="4">
                    <SimplePredicate field="Saturation" operator="lessOrEqual" value="97.5"/>
                   </Node>
                   <Node id="163">
                    <SimplePredicate field="Saturation" operator="greaterThan" value="97.5"/>
                    <Node id="176" score="3">
                     <SimplePredicate field="HR" operator="lessOrEqual" value="77"/>
                    </Node>
                    <Node id="177" score="4">
                     <SimplePredicate field="HR" operator="greaterThan" value="77"/>
                    </Node>
                   </Node>
                  </Node>
                 </Node>
                 <Node id="131">
                  <SimplePredicate field="HR" operator="greaterThan" value="85"/>
                  <Node id="148">
                   <SimplePredicate field="SBP" operator="lessOrEqual" value="115"/>
                   <Node id="164" score="3">
                    <SimplePredicate field="HR" operator="lessOrEqual" value="101"/>
                   </Node>
                   <Node id="165" score="4">
                    <SimplePredicate field="HR" operator="greaterThan" value="101"/>
                   </Node>
                  </Node>
                  <Node id="149" score="3">
                   <SimplePredicate field="SBP" operator="greaterThan" value="115"/>
                  </Node>
                 </Node>
                </Node>
                <Node id="109" score="4">
                 <SimplePredicate field="Age" operator="greaterThan" value="77"/>
                </Node>
               </Node>
               <Node id="91" score="2">
                <SimplePredicate field="RR" operator="greaterThan" value="23"/>
               </Node>
              </Node>
              <Node id="73">
               <SimplePredicate field="BT" operator="greaterThan" value="36.4500000000000028"/>
               <Node id="92">
                <SimplePredicate field="RR" operator="lessOrEqual" value="21"/>
                <Node id="110">
                 <SimplePredicate field="DBP" operator="lessOrEqual" value="75"/>
                 <Node id="132">
                  <SimplePredicate field="Age" operator="lessOrEqual" value="64"/>
                  <Node id="150">
                   <SimplePredicate field="DBP" operator="lessOrEqual" value="65"/>
                   <Node id="166">
                    <SimplePredicate field="Age" operator="lessOrEqual" value="49.5"/>
                    <Node id="178" score="3">
                     <SimplePredicate field="HR" operator="lessOrEqual" value="91"/>
                    </Node>
                    <Node id="179" score="4">
                     <SimplePredicate field="HR" operator="greaterThan" value="91"/>
                    </Node>
                   </Node>
                   <Node id="167" score="3">
                    <SimplePredicate field="Age" operator="greaterThan" value="49.5"/>
                   </Node>
                  </Node>
                  <Node id="151">
                   <SimplePredicate field="DBP" operator="greaterThan" value="65"/>
                   <Node id="168">
                    <SimplePredicate field="Sex" operator="lessOrEqual" value="1.5"/>
                    <Node id="180" score="4">
                     <SimplePredicate field="HR" operator="lessOrEqual" value="85.5"/>
                    </Node>
                    <Node id="181" score="3">
                     <SimplePredicate field="HR" operator="greaterThan" value="85.5"/>
                    </Node>
                   </Node>
                   <Node id="169">
                    <SimplePredicate field="Sex" operator="greaterThan" value="1.5"/>
                    <Node id="182">
                     <SimplePredicate field="SBP" operator="lessOrEqual" value="115"/>
                     <Node id="188" score="3">
                      <SimplePredicate field="BT" operator="lessOrEqual" value="36.5499999999999972"/>
                     </Node>
                     <Node id="189">
                      <SimplePredicate field="BT" operator="greaterThan" value="36.5499999999999972"/>
                      <Node id="194" score="4">
                       <SimplePredicate field="Saturation" operator="lessOrEqual" value="98.5"/>
                      </Node>
                      <Node id="195" score="3">
                       <SimplePredicate field="Saturation" operator="greaterThan" value="98.5"/>
                      </Node>
                     </Node>
                    </Node>
                    <Node id="183" score="4">
                     <SimplePredicate field="SBP" operator="greaterThan" value="115"/>
                    </Node>
                   </Node>
                  </Node>
                 </Node>
                 <Node id="133" score="4">
                  <SimplePredicate field="Age" operator="greaterThan" value="64"/>
                 </Node>
                </Node>
                <Node id="111">
                 <SimplePredicate field="DBP" operator="greaterThan" value="75"/>
                 <Node id="134">
                  <SimplePredicate field="Age" operator="lessOrEqual" value="63.5"/>
                  <Node id="152">
                   <SimplePredicate field="Sex" operator="lessOrEqual" value="1.5"/>
                   <Node id="170">
                    <SimplePredicate field="Age" operator="lessOrEqual" value="59"/>
                    <Node id="184" score="2">
                     <SimplePredicate field="HR" operator="lessOrEqual" value="80"/>
                    </Node>
                    <Node id="185">
                     <SimplePredicate field="HR" operator="greaterThan" value="80"/>
                     <Node id="190" score="3">
                      <SimplePredicate field="Age" operator="lessOrEqual" value="42"/>
                     </Node>
                     <Node id="191" score="2">
                      <SimplePredicate field="Age" operator="greaterThan" value="42"/>
                     </Node>
                    </Node>
                   </Node>
                   <Node id="171" score="4">
                    <SimplePredicate field="Age" operator="greaterThan" value="59"/>
                   </Node>
                  </Node>
                  <Node id="153">
                   <SimplePredicate field="Sex" operator="greaterThan" value="1.5"/>
                   <Node id="172" score="4">
                    <SimplePredicate field="BT" operator="lessOrEqual" value="36.5499999999999972"/>
                   </Node>
                   <Node id="173" score="2">
                    <SimplePredicate field="BT" operator="greaterThan" value="36.5499999999999972"/>
                   </Node>
                  </Node>
                 </Node>
                 <Node id="135" score="3">
                  <SimplePredicate field="Age" operator="greaterThan" value="63.5"/>
                 </Node>
                </Node>
               </Node>
               <Node id="93">
                <SimplePredicate field="RR" operator="greaterThan" value="21"/>
                <Node id="112" score="3">
                 <SimplePredicate field="RR" operator="lessOrEqual" value="23"/>
                </Node>
                <Node id="113" score="2">
                 <SimplePredicate field="RR" operator="greaterThan" value="23"/>
                </Node>
               </Node>
              </Node>
             </Node>
            </Node>
           </Node>
          </Node>
         </Node>
         <Node id="9">
          <SimplePredicate field="SBP" operator="greaterThan" value="135"/>
          <Node id="14">
           <SimplePredicate field="Age" operator="lessOrEqual" value="80.5"/>
           <Node id="24" score="2">
            <SimplePredicate field="BT" operator="lessOrEqual" value="36.25"/>
           </Node>
           <Node id="25" score="3">
            <SimplePredicate field="BT" operator="greaterThan" value="36.25"/>
           </Node>
          </Node>
          <Node id="15" score="2">
           <SimplePredicate field="Age" operator="greaterThan" value="80.5"/>
          </Node>
         </Node>
        </Node>
        <Node id="7">
         <SimplePredicate field="DBP" operator="greaterThan" value="85"/>
         <Node id="10">
          <SimplePredicate field="HR" operator="lessOrEqual" value="73"/>
          <Node id="16">
           <SimplePredicate field="Age" operator="lessOrEqual" value="89.5"/>
           <Node id="26">
            <SimplePredicate field="Sex" operator="lessOrEqual" value="1.5"/>
            <Node id="38" score="2">
             <SimplePredicate field="DBP" operator="lessOrEqual" value="95"/>
            </Node>
            <Node id="39" score="3">
             <SimplePredicate field="DBP" operator="greaterThan" value="95"/>
            </Node>
           </Node>
           <Node id="27">
            <SimplePredicate field="Sex" operator="greaterThan" value="1.5"/>
            <Node id="40">
             <SimplePredicate field="Saturation" operator="lessOrEqual" value="97.5"/>
             <Node id="58">
              <SimplePredicate field="Age" operator="lessOrEqual" value="74.5"/>
              <Node id="74" score="4">
               <SimplePredicate field="BT" operator="lessOrEqual" value="36.4500000000000028"/>
              </Node>
              <Node id="75" score="3">
               <SimplePredicate field="BT" operator="greaterThan" value="36.4500000000000028"/>
              </Node>
             </Node>
             <Node id="59" score="2">
              <SimplePredicate field="Age" operator="greaterThan" value="74.5"/>
             </Node>
            </Node>
            <Node id="41" score="2">
             <SimplePredicate field="Saturation" operator="greaterThan" value="97.5"/>
            </Node>
           </Node>
          </Node>
          <Node id="17" score="4">
           <SimplePredicate field="Age" operator="greaterThan" value="89.5"/>
          </Node>
         </Node>
         <Node id="11">
          <SimplePredicate field="HR" operator="greaterThan" value="73"/>
          <Node id="18">
           <SimplePredicate field="Age" operator="lessOrEqual" value="52.5"/>
           <Node id="28">
            <SimplePredicate field="Age" operator="lessOrEqual" value="40"/>
            <Node id="42" score="4">
             <SimplePredicate field="DBP" operator="lessOrEqual" value="95"/>
            </Node>
            <Node id="43">
             <SimplePredicate field="DBP" operator="greaterThan" value="95"/>
             <Node id="60" score="4">
              <SimplePredicate field="Age" operator="lessOrEqual" value="36"/>
             </Node>
             <Node id="61" score="2">
              <SimplePredicate field="Age" operator="greaterThan" value="36"/>
             </Node>
            </Node>
           </Node>
           <Node id="29">
            <SimplePredicate field="Age" operator="greaterThan" value="40"/>
            <Node id="44" score="3">
             <SimplePredicate field="Saturation" operator="lessOrEqual" value="97"/>
            </Node>
            <Node id="45" score="4">
             <SimplePredicate field="Saturation" operator="greaterThan" value="97"/>
            </Node>
           </Node>
          </Node>
          <Node id="19">
           <SimplePredicate field="Age" operator="greaterThan" value="52.5"/>
           <Node id="30">
            <SimplePredicate field="HR" operator="lessOrEqual" value="105"/>
            <Node id="46" score="5">
             <SimplePredicate field="Age" operator="lessOrEqual" value="53.5"/>
            </Node>
            <Node id="47">
             <SimplePredicate field="Age" operator="greaterThan" value="53.5"/>
             <Node id="62">
              <SimplePredicate field="BT" operator="lessOrEqual" value="36.6000000000000014"/>
              <Node id="76" score="3">
               <SimplePredicate field="Age" operator="lessOrEqual" value="55"/>
              </Node>
              <Node id="77">
               <SimplePredicate field="Age" operator="greaterThan" value="55"/>
               <Node id="94">
                <SimplePredicate field="RR" operator="lessOrEqual" value="21"/>
                <Node id="114">
                 <SimplePredicate field="SBP" operator="lessOrEqual" value="155"/>
                 <Node id="136" score="3">
                  <SimplePredicate field="Age" operator="lessOrEqual" value="58.5"/>
                 </Node>
                 <Node id="137">
                  <SimplePredicate field="Age" operator="greaterThan" value="58.5"/>
                  <Node id="154">
                   <SimplePredicate field="BT" operator="lessOrEqual" value="36.25"/>
                   <Node id="174">
                    <SimplePredicate field="Age" operator="lessOrEqual" value="72"/>
                    <Node id="186">
                     <SimplePredicate field="BT" operator="lessOrEqual" value="36.1000000000000014"/>
                     <Node id="192" score="4">
                      <SimplePredicate field="HR" operator="lessOrEqual" value="84"/>
                     </Node>
                     <Node id="193" score="3">
                      <SimplePredicate field="HR" operator="greaterThan" value="84"/>
                     </Node>
                    </Node>
                    <Node id="187" score="3">
                     <SimplePredicate field="BT" operator="greaterThan" value="36.1000000000000014"/>
                    </Node>
                   </Node>
                   <Node id="175" score="4">
                    <SimplePredicate field="Age" operator="greaterThan" value="72"/>
                   </Node>
                  </Node>
                  <Node id="155" score="4">
                   <SimplePredicate field="BT" operator="greaterThan" value="36.25"/>
                  </Node>
                 </Node>
                </Node>
                <Node id="115">
                 <SimplePredicate field="SBP" operator="greaterThan" value="155"/>
                 <Node id="138">
                  <SimplePredicate field="BT" operator="lessOrEqual" value="36.3999999999999986"/>
                  <Node id="156" score="2">
                   <SimplePredicate field="SBP" operator="lessOrEqual" value="180"/>
                  </Node>
                  <Node id="157" score="4">
                   <SimplePredicate field="SBP" operator="greaterThan" value="180"/>
                  </Node>
                 </Node>
                 <Node id="139" score="4">
                  <SimplePredicate field="BT" operator="greaterThan" value="36.3999999999999986"/>
                 </Node>
                </Node>
               </Node>
               <Node id="95" score="2">
                <SimplePredicate field="RR" operator="greaterThan" value="21"/>
               </Node>
              </Node>
             </Node>
             <Node id="63">
              <SimplePredicate field="BT" operator="greaterThan" value="36.6000000000000014"/>
              <Node id="78">
               <SimplePredicate field="Sex" operator="lessOrEqual" value="1.5"/>
               <Node id="96">
                <SimplePredicate field="BT" operator="lessOrEqual" value="37.6000000000000014"/>
                <Node id="116" score="2">
                 <SimplePredicate field="BT" operator="lessOrEqual" value="36.75"/>
                </Node>
                <Node id="117" score="3">
                 <SimplePredicate field="BT" operator="greaterThan" value="36.75"/>
                </Node>
               </Node>
               <Node id="97" score="4">
                <SimplePredicate field="BT" operator="greaterThan" value="37.6000000000000014"/>
               </Node>
              </Node>
              <Node id="79" score="3">
               <SimplePredicate field="Sex" operator="greaterThan" value="1.5"/>
              </Node>
             </Node>
            </Node>
           </Node>
           <Node id="31" score="2">
            <SimplePredicate field="HR" operator="greaterThan" value="105"/>
           </Node>
          </Node>
         </Node>
        </Node>
       </Node>
      </Node>
      <Node id="3" score="1">
       <SimplePredicate field="RR" operator="greaterThan" value="25"/>
      </Node>
     </Node>
    </TreeModel>
   </Segment>
   <Segment id="3">
    <True/>
    <TreeModel modelName="randomForest_Model" functionName="classification" algorithmName="randomForest" splitCharacteristic="binarySplit">
     <MiningSchema>
      <MiningField name="KTAS_expert" usageType="predicted" invalidValueTreatment="asIs"/>
      <MiningField name="Age" usageType="active" invalidValueTreatment="asIs"/>
      <MiningField name="Sex" usageType="active" invalidValueTreatment="asIs"/>
      <MiningField name="SBP" usageType="active" invalidValueTreatment="asIs"/>
      <MiningField name="DBP" usageType="active" invalidValueTreatment="asIs"/>
      <MiningField name="HR" usageType="active" invalidValueTreatment="asIs"/>
      <MiningField name="RR" usageType="active" invalidValueTreatment="asIs"/>
      <MiningField name="BT" usageType="active" invalidValueTreatment="asIs"/>
      <MiningField name="Saturation" usageType="active" invalidValueTreatment="asIs"/>
      <MiningField name="Pain" usageType="active" invalidValueTreatment="asIs"/>
      <MiningField name="Mental" usageType="active" invalidValueTreatment="asIs"/>
     </MiningSchema>
     <Node id="1">
      <True/>
      <Node id="2">
       <SimplePredicate field="RR" operator="lessOrEqual" value="25"/>
       <Node id="4">
        <SimplePredicate field="HR" operator="lessOrEqual" value="71"/>
        <Node id="6">
         <SimplePredicate field="HR" operator="lessOrEqual" value="65"/>
         <Node id="10" score="2">
          <SimplePredicate field="BT" operator="lessOrEqual" value="36.1500000000000057"/>
         </Node>
         <Node id="11">
          <SimplePredicate field="BT" operator="greaterThan" value="36.1500000000000057"/>
          <Node id="18">
           <SimplePredicate field="DBP" operator="lessOrEqual" value="65"/>
           <Node id="28" score="4">
            <SimplePredicate field="SBP" operator="lessOrEqual" value="105"/>
           </Node>
           <Node id="29" score="2">
            <SimplePredicate field="SBP" operator="greaterThan" value="105"/>
           </Node>
          </Node>
          <Node id="19">
           <SimplePredicate field="DBP" operator="greaterThan" value="65"/>
           <Node id="30" score="3">
            <SimplePredicate field="Sex" operator="lessOrEqual" value="1.5"/>
           </Node>
           <Node id="31">
            <SimplePredicate field="Sex" operator="greaterThan" value="1.5"/>
            <Node id="40" score="4">
             <SimplePredicate field="SBP" operator="lessOrEqual" value="115"/>
            </Node>
            <Node id="41">
             <SimplePredicate field="SBP" operator="greaterThan" value="115"/>
             <Node id="50">
              <SimplePredicate field="SBP" operator="lessOrEqual" value="140"/>
              <Node id="60" score="4">
               <SimplePredicate field="Saturation" operator="lessOrEqual" value="98"/>
              </Node>
              <Node id="61" score="3">
               <SimplePredicate field="Saturation" operator="greaterThan" value="98"/>
              </Node>
             </Node>
             <Node id="51" score="3">
              <SimplePredicate field="SBP" operator="greaterThan" value="140"/>
             </Node>
            </Node>
           </Node>
          </Node>
         </Node>
        </Node>
        <Node id="7">
         <SimplePredicate field="HR" operator="greaterThan" value="65"/>
         <Node id="12">
          <SimplePredicate field="Age" operator="lessOrEqual" value="53.5"/>
          <Node id="20" score="3">
           <SimplePredicate field="BT" operator="lessOrEqual" value="36.1499999999999986"/>
          </Node>
          <Node id="21">
           <SimplePredicate field="BT" operator="greaterThan" value="36.1499999999999986"/>
           <Node id="32" score="4">
            <SimplePredicate field="BT" operator="lessOrEqual" value="36.4500000000000028"/>
           </Node>
           <Node id="33">
            <SimplePredicate field="BT" operator="greaterThan" value="36.4500000000000028"/>
            <Node id="42" score="4">
             <SimplePredicate field="HR" operator="lessOrEqual" value="67"/>
            </Node>
            <Node id="43" score="3">
             <SimplePredicate field="HR" operator="greaterThan" value="67"/>
            </Node>
           </Node>
          </Node>
         </Node>
         <Node id="13">
          <SimplePredicate field="Age" operator="greaterThan" value="53.5"/>
          <Node id="22">
           <SimplePredicate field="Sex" operator="lessOrEqual" value="1.5"/>
           <Node id="34" score="2">
            <SimplePredicate field="DBP" operator="lessOrEqual" value="70"/>
           </Node>
           <Node id="35">
            <SimplePredicate field="DBP" operator="greaterThan" value="70"/>
            <Node id="44">
             <SimplePredicate field="RR" operator="lessOrEqual" value="21"/>
             <Node id="52" score="4">
              <SimplePredicate field="SBP" operator="lessOrEqual" value="130"/>
             </Node>
             <Node id="53" score="2">
              <SimplePredicate field="SBP" operator="greaterThan" value="130"/>
             </Node>
            </Node>
            <Node id="45" score="4">
             <SimplePredicate field="RR" operator="greaterThan" value="21"/>
            </Node>
           </Node>
          </Node>
          <Node id="23" score="2">
           <SimplePredicate field="Sex" operator="greaterThan" value="1.5"/>
          </Node>
         </Node>
        </Node>
       </Node>
       <Node id="5">
        <SimplePredicate field="HR" operator="greaterThan" value="71"/>
        <Node id="8">
         <SimplePredicate field="SBP" operator="lessOrEqual" value="95"/>
         <Node id="14" score="2">
          <SimplePredicate field="Age" operator="lessOrEqual" value="55.5"/>
         </Node>
         <Node id="15" score="3">
          <SimplePredicate field="Age" operator="greaterThan" value="55.5"/>
         </Node>
        </Node>
        <Node id="9">
         <SimplePredicate field="SBP" operator="greaterThan" value="95"/>
         <Node id="16">
          <SimplePredicate field="RR" operator="lessOrEqual" value="21"/>
          <Node id="24" score="2">
           <SimplePredicate field="Saturation" operator="lessOrEqual" value="92.5"/>
          </Node>
          <Node id="25">
           <SimplePredicate field="Saturation" operator="greaterThan" value="92.5"/>
           <Node id="36" score="4">
            <SimplePredicate field="Age" operator="lessOrEqual" value="18"/>
           </Node>
           <Node id="37">
            <SimplePredicate field="Age" operator="greaterThan" value="18"/>
            <Node id="46">
             <SimplePredicate field="SBP" operator="lessOrEqual" value="155"/>
             <Node id="54">
              <SimplePredicate field="BT" operator="lessOrEqual" value="36.0499999999999972"/>
              <Node id="62">
               <SimplePredicate field="HR" operator="lessOrEqual" value="85.5"/>
               <Node id="72">
                <SimplePredicate field="SBP" operator="lessOrEqual" value="115"/>
                <Node id="80" score="4">
                 <SimplePredicate field="SBP" operator="lessOrEqual" value="105"/>
                </Node>
                <Node id="81">
                 <SimplePredicate field="SBP" operator="greaterThan" value="105"/>
                 <Node id="94" score="3">
                  <SimplePredicate field="DBP" operator="lessOrEqual" value="65"/>
                 </Node>
                 <Node id="95">
                  <SimplePredicate field="DBP" operator="greaterThan" value="65"/>
                  <Node id="112" score="3">
                   <SimplePredicate field="Age" operator="lessOrEqual" value="54"/>
                  </Node>
                  <Node id="113" score="4">
                   <SimplePredicate field="Age" operator="greaterThan" value="54"/>
                  </Node>
                 </Node>
                </Node>
               </Node>
               <Node id="73">
                <SimplePredicate field="SBP" operator="greaterThan" value="115"/>
                <Node id="82" score="5">
                 <SimplePredicate field="Saturation" operator="lessOrEqual" value="97.5"/>
                </Node>
                <Node id="83">
                 <SimplePredicate field="Saturation" operator="greaterThan" value="97.5"/>
                 <Node id="96">
                  <SimplePredicate field="SBP" operator="lessOrEqual" value="130"/>
                  <Node id="114" score="2">
                   <SimplePredicate field="Age" operator="lessOrEqual" value="27"/>
                  </Node>
                  <Node id="115">
                   <SimplePredicate field="Age" operator="greaterThan" value="27"/>
                   <Node id="130" score="3">
                    <SimplePredicate field="Sex" operator="lessOrEqual" value="1.5"/>
                   </Node>
                   <Node id="131" score="5">
                    <SimplePredicate field="Sex" operator="greaterThan" value="1.5"/>
                   </Node>
                  </Node>
                 </Node>
                 <Node id="97" score="2">
                  <SimplePredicate field="SBP" operator="greaterThan" value="130"/>
                 </Node>
                </Node>
               </Node>
              </Node>
              <Node id="63" score="3">
               <SimplePredicate field="HR" operator="greaterThan" value="85.5"/>
              </Node>
             </Node>
             <Node id="55">
              <SimplePredicate field="BT" operator="greaterThan" value="36.0499999999999972"/>
              <Node id="64">
               <SimplePredicate field="DBP" operator="lessOrEqual" value="85"/>
               <Node id="74">
                <SimplePredicate field="Sex" operator="lessOrEqual" value="1.5"/>
                <Node id="84">
                 <SimplePredicate field="Saturation" operator="lessOrEqual" value="98.5"/>
                 <Node id="98">
                  <SimplePredicate field="HR" operator="lessOrEqual" value="89.5"/>
                  <Node id="116">
                   <SimplePredicate field="BT" operator="lessOrEqual" value="36.3499999999999943"/>
                   <Node id="132" score="4">
                    <SimplePredicate field="Age" operator="lessOrEqual" value="33.5"/>
                   </Node>
                   <Node id="133" score="5">
                    <SimplePredicate field="Age" operator="greaterThan" value="33.5"/>
                   </Node>
                  </Node>
                  <Node id="117">
                   <SimplePredicate field="BT" operator="greaterThan" value="36.3499999999999943"/>
                   <Node id="134" score="4">
                    <SimplePredicate field="Saturation" operator="lessOrEqual" value="97.5"/>
                   </Node>
                   <Node id="135">
                    <SimplePredicate field="Saturation" operator="greaterThan" value="97.5"/>
                    <Node id="148">
                     <SimplePredicate field="HR" operator="lessOrEqual" value="73"/>
                     <Node id="160" score="4">
                      <SimplePredicate field="DBP" operator="lessOrEqual" value="75"/>
                     </Node>
                     <Node id="161" score="4">
                      <SimplePredicate field="DBP" operator="greaterThan" value="75"/>
                     </Node>
                    </Node>
                    <Node id="149">
                     <SimplePredicate field="HR" operator="greaterThan" value="73"/>
                     <Node id="162">
                      <SimplePredicate field="SBP" operator="lessOrEqual" value="125"/>
                      <Node id="170" score="3">
                       <SimplePredicate field="HR" operator="lessOrEqual" value="75.5"/>
                      </Node>
                      <Node id="171">
                       <SimplePredicate field="HR" operator="greaterThan" value="75.5"/>
                       <Node id="176" score="3">
                        <SimplePredicate field="Age" operator="lessOrEqual" value="31"/>
                       </Node>
                       <Node id="177" score="4">
                        <SimplePredicate field="Age" operator="greaterThan" value="31"/>
                       </Node>
                      </Node>
                     </Node>
                     <Node id="163" score="4">
                      <SimplePredicate field="SBP" operator="greaterThan" value="125"/>
                     </Node>
                    </Node>
                   </Node>
                  </Node>
                 </Node>
                 <Node id="99">
                  <SimplePredicate field="HR" operator="greaterThan" value="89.5"/>
                  <Node id="118" score="3">
                   <SimplePredicate field="SBP" operator="lessOrEqual" value="115"/>
                  </Node>
                  <Node id="119">
                   <SimplePredicate field="SBP" operator="greaterThan" value="115"/>
                   <Node id="136">
                    <SimplePredicate field="BT" operator="lessOrEqual" value="36.75"/>
                    <Node id="150" score="3">
                     <SimplePredicate field="Saturation" operator="lessOrEqual" value="97.5"/>
                    </Node>
                    <Node id="151" score="5">
                     <SimplePredicate field="Saturation" operator="greaterThan" value="97.5"/>
                    </Node>
                   </Node>
                   <Node id="137" score="4">
                    <SimplePredicate field="BT" operator="greaterThan" value="36.75"/>
                   </Node>
                  </Node>
                 </Node>
                </Node>
                <Node id="85">
                 <SimplePredicate field="Saturation" operator="greaterThan" value="98.5"/>
                 <Node id="100">
                  <SimplePredicate field="HR" operator="lessOrEqual" value="97.5"/>
                  <Node id="120" score="3">
                   <SimplePredicate field="Age" operator="lessOrEqual" value="41.5"/>
                  </Node>
                  <Node id="121">
                   <SimplePredicate field="Age" operator="greaterThan" value="41.5"/>
                   <Node id="138" score="4">
                    <SimplePredicate field="DBP" operator="lessOrEqual" value="65"/>
                   </Node>
                   <Node id="139" score="2">
                    <SimplePredicate field="DBP" operator="greaterThan" value="65"/>
                   </Node>
                  </Node>
                 </Node>
                 <Node id="101" score="2">
                  <SimplePredicate field="HR" operator="greaterThan" value="97.5"/>
                 </Node>
                </Node>
               </Node>
               <Node id="75">
                <SimplePredicate field="Sex" operator="greaterThan" value="1.5"/>
                <Node id="86">
                 <SimplePredicate field="HR" operator="lessOrEqual" value="101"/>
                 <Node id="102">
                  <SimplePredicate field="Saturation" operator="lessOrEqual" value="99.5"/>
                  <Node id="122">
                   <SimplePredicate field="BT" operator="lessOrEqual" value="36.75"/>
                   <Node id="140">
                    <SimplePredicate field="Age" operator="lessOrEqual" value="48"/>
                    <Node id="152" score="4">
                     <SimplePredicate field="HR" operator="lessOrEqual" value="82"/>
                    </Node>
                    <Node id="153" score="4">
                     <SimplePredicate field="HR" operator="greaterThan" value="82"/>
                    </Node>
                   </Node>
                   <Node id="141">
                    <SimplePredicate field="Age" operator="greaterThan" value="48"/>
                    <Node id="154">
                     <SimplePredicate field="DBP" operator="lessOrEqual" value="75"/>
                     <Node id="164" score="4">
                      <SimplePredicate field="BT" operator="lessOrEqual" value="36.3499999999999943"/>
                     </Node>
                     <Node id="165">
                      <SimplePredicate field="BT" operator="greaterThan" value="36.3499999999999943"/>
                      <Node id="172" score="3">
                       <SimplePredicate field="RR" operator="lessOrEqual" value="19"/>
                      </Node>
                      <Node id="173" score="4">
                       <SimplePredicate field="RR" operator="greaterThan" value="19"/>
                      </Node>
                     </Node>
                    </Node>
                    <Node id="155">
                     <SimplePredicate field="DBP" operator="greaterThan" value="75"/>
                     <Node id="166" score="2">
                      <SimplePredicate field="Age" operator="lessOrEqual" value="53.5"/>
                     </Node>
                     <Node id="167">
                      <SimplePredicate field="Age" operator="greaterThan" value="53.5"/>
                      <Node id="174">
                       <SimplePredicate field="Saturation" operator="lessOrEqual" value="97.5"/>
                       <Node id="178" score="4">
                        <SimplePredicate field="SBP" operator="lessOrEqual" value="135"/>
                       </Node>
                       <Node id="179" score="3">
                        <SimplePredicate field="SBP" operator="greaterThan" value="135"/>
                       </Node>
                      </Node>
                      <Node id="175">
                       <SimplePredicate field="Saturation" operator="greaterThan" value="97.5"/>
                       <Node id="180" score="4">
                        <SimplePredicate field="Age" operator="lessOrEqual" value="59.5"/>
                       </Node>
                       <Node id="181" score="2">
                        <SimplePredicate field="Age" operator="greaterThan" value="59.5"/>
                       </Node>
                      </Node>
                     </Node>
                    </Node>
                   </Node>
                  </Node>
                  <Node id="123">
                   <SimplePredicate field="BT" operator="greaterThan" value="36.75"/>
                   <Node id="142" score="3">
                    <SimplePredicate field="HR" operator="lessOrEqual" value="79"/>
                   </Node>
                   <Node id="143">
                    <SimplePredicate field="HR" operator="greaterThan" value="79"/>
                    <Node id="156" score="4">
                     <SimplePredicate field="BT" operator="lessOrEqual" value="37"/>
                    </Node>
                    <Node id="157" score="3">
                     <SimplePredicate field="BT" operator="greaterThan" value="37"/>
                    </Node>
                   </Node>
                  </Node>
                 </Node>
                 <Node id="103" score="3">
                  <SimplePredicate field="Saturation" operator="greaterThan" value="99.5"/>
                 </Node>
                </Node>
                <Node id="87">
                 <SimplePredicate field="HR" operator="greaterThan" value="101"/>
                 <Node id="104" score="3">
                  <SimplePredicate field="BT" operator="lessOrEqual" value="37.1500000000000057"/>
                 </Node>
                 <Node id="105" score="4">
                  <SimplePredicate field="BT" operator="greaterThan" value="37.1500000000000057"/>
                 </Node>
                </Node>
               </Node>
              </Node>
              <Node id="65">
               <SimplePredicate field="DBP" operator="greaterThan" value="85"/>
               <Node id="76">
                <SimplePredicate field="Saturation" operator="lessOrEqual" value="98.5"/>
                <Node id="88">
                 <SimplePredicate field="HR" operator="lessOrEqual" value="81"/>
                 <Node id="106">
                  <SimplePredicate field="SBP" operator="lessOrEqual" value="135"/>
                  <Node id="124" score="2">
                   <SimplePredicate field="BT" operator="lessOrEqual" value="36.3499999999999943"/>
                  </Node>
                  <Node id="125" score="4">
                   <SimplePredicate field="BT" operator="greaterThan" value="36.3499999999999943"/>
                  </Node>
                 </Node>
                 <Node id="107" score="4">
                  <SimplePredicate field="SBP" operator="greaterThan" value="135"/>
                 </Node>
                </Node>
                <Node id="89">
                 <SimplePredicate field="HR" operator="greaterThan" value="81"/>
                 <Node id="108">
                  <SimplePredicate field="HR" operator="lessOrEqual" value="92"/>
                  <Node id="126" score="5">
                   <SimplePredicate field="SBP" operator="lessOrEqual" value="135"/>
                  </Node>
                  <Node id="127">
                   <SimplePredicate field="SBP" operator="greaterThan" value="135"/>
                   <Node id="144" score="3">
                    <SimplePredicate field="HR" operator="lessOrEqual" value="86.5"/>
                   </Node>
                   <Node id="145">
                    <SimplePredicate field="HR" operator="greaterThan" value="86.5"/>
                    <Node id="158">
                     <SimplePredicate field="Saturation" operator="lessOrEqual" value="97.5"/>
                     <Node id="168" score="4">
                      <SimplePredicate field="BT" operator="lessOrEqual" value="36.6500000000000057"/>
                     </Node>
                     <Node id="169" score="3">
                      <SimplePredicate field="BT" operator="greaterThan" value="36.6500000000000057"/>
                     </Node>
                    </Node>
                    <Node id="159" score="3">
                     <SimplePredicate field="Saturation" operator="greaterThan" value="97.5"/>
                    </Node>
                   </Node>
                  </Node>
                 </Node>
                 <Node id="109">
                  <SimplePredicate field="HR" operator="greaterThan" value="92"/>
                  <Node id="128" score="4">
                   <SimplePredicate field="SBP" operator="lessOrEqual" value="135"/>
                  </Node>
                  <Node id="129">
                   <SimplePredicate field="SBP" operator="greaterThan" value="135"/>
                   <Node id="146" score="4">
                    <SimplePredicate field="Sex" operator="lessOrEqual" value="1.5"/>
                   </Node>
                   <Node id="147" score="2">
                    <SimplePredicate field="Sex" operator="greaterThan" value="1.5"/>
                   </Node>
                  </Node>
                 </Node>
                </Node>
               </Node>
               <Node id="77">
                <SimplePredicate field="Saturation" operator="greaterThan" value="98.5"/>
                <Node id="90" score="3">
                 <SimplePredicate field="Age" operator="lessOrEqual" value="68"/>
                </Node>
                <Node id="91" score="4">
                 <SimplePredicate field="Age" operator="greaterThan" value="68"/>
                </Node>
               </Node>
              </Node>
             </Node>
            </Node>
            <Node id="47">
             <SimplePredicate field="SBP" operator="greaterThan" value="155"/>
             <Node id="56">
              <SimplePredicate field="HR" operator="lessOrEqual" value="99.5"/>
              <Node id="66" score="2">
               <SimplePredicate field="Age" operator="lessOrEqual" value="28.5"/>
              </Node>
              <Node id="67">
               <SimplePredicate field="Age" operator="greaterThan" value="28.5"/>
               <Node id="78" score="4">
                <SimplePredicate field="RR" operator="lessOrEqual" value="19"/>
               </Node>
               <Node id="79">
                <SimplePredicate field="RR" operator="greaterThan" value="19"/>
                <Node id="92" score="2">
                 <SimplePredicate field="DBP" operator="lessOrEqual" value="95"/>
                </Node>
                <Node id="93">
                 <SimplePredicate field="DBP" operator="greaterThan" value="95"/>
                 <Node id="110" score="4">
                  <SimplePredicate field="Age" operator="lessOrEqual" value="82"/>
                 </Node>
                 <Node id="111" score="2">
                  <SimplePredicate field="Age" operator="greaterThan" value="82"/>
                 </Node>
                </Node>
               </Node>
              </Node>
             </Node>
             <Node id="57">
              <SimplePredicate field="HR" operator="greaterThan" value="99.5"/>
              <Node id="68" score="3">
               <SimplePredicate field="DBP" operator="lessOrEqual" value="95"/>
              </Node>
              <Node id="69" score="4">
               <SimplePredicate field="DBP" operator="greaterThan" value="95"/>
              </Node>
             </Node>
            </Node>
           </Node>
          </Node>
         </Node>
         <Node id="17">
          <SimplePredicate field="RR" operator="greaterThan" value="21"/>
          <Node id="26">
           <SimplePredicate field="HR" operator="lessOrEqual" value="109"/>
           <Node id="38">
            <SimplePredicate field="SBP" operator="lessOrEqual" value="135"/>
            <Node id="48" score="2">
             <SimplePredicate field="BT" operator="lessOrEqual" value="36.1000000000000014"/>
            </Node>
            <Node id="49">
             <SimplePredicate field="BT" operator="greaterThan" value="36.1000000000000014"/>
             <Node id="58">
              <SimplePredicate field="SBP" operator="lessOrEqual" value="115"/>
              <Node id="70" score="2">
               <SimplePredicate field="BT" operator="lessOrEqual" value="36.4500000000000028"/>
              </Node>
              <Node id="71" score="4">
               <SimplePredicate field="BT" operator="greaterThan" value="36.4500000000000028"/>
              </Node>
             </Node>
             <Node id="59" score="3">
              <SimplePredicate field="SBP" operator="greaterThan" value="115"/>
             </Node>
            </Node>
           </Node>
           <Node id="39" score="2">
            <SimplePredicate field="SBP" operator="greaterThan" value="135"/>
           </Node>
          </Node>
          <Node id="27" score="3">
           <SimplePredicate field="HR" operator="greaterThan" value="109"/>
          </Node>
         </Node>
        </Node>
       </Node>
      </Node>
      <Node id="3" score="1">
       <SimplePredicate field="RR" operator="greaterThan" value="25"/>
      </Node>
     </Node>
    </TreeModel>
   </Segment>
   <Segment id="4">
    <True/>
    <TreeModel modelName="randomForest_Model" functionName="classification" algorithmName="randomForest" splitCharacteristic="binarySplit">
     <MiningSchema>
      <MiningField name="KTAS_expert" usageType="predicted" invalidValueTreatment="asIs"/>
      <MiningField name="Age" usageType="active" invalidValueTreatment="asIs"/>
      <MiningField name="Sex" usageType="active" invalidValueTreatment="asIs"/>
      <MiningField name="SBP" usageType="active" invalidValueTreatment="asIs"/>
      <MiningField name="DBP" usageType="active" invalidValueTreatment="asIs"/>
      <MiningField name="HR" usageType="active" invalidValueTreatment="asIs"/>
      <MiningField name="RR" usageType="active" invalidValueTreatment="asIs"/>
      <MiningField name="BT" usageType="active" invalidValueTreatment="asIs"/>
      <MiningField name="Saturation" usageType="active" invalidValueTreatment="asIs"/>
      <MiningField name="Pain" usageType="active" invalidValueTreatment="asIs"/>
      <MiningField name="Mental" usageType="active" invalidValueTreatment="asIs"/>
     </MiningSchema>
     <Node id="1">
      <True/>
      <Node id="2">
       <SimplePredicate field="Mental" operator="lessOrEqual" value="1.5"/>
       <Node id="4">
        <SimplePredicate field="RR" operator="lessOrEqual" value="21"/>
        <Node id="6" score="2">
         <SimplePredicate field="Saturation" operator="lessOrEqual" value="90.5"/>
        </Node>
        <Node id="7">
         <SimplePredicate field="Saturation" operator="greaterThan" value="90.5"/>
         <Node id="10">
          <SimplePredicate field="BT" operator="lessOrEqual" value="36.0499999999999972"/>
          <Node id="16" score="2">
           <SimplePredicate field="HR" operator="lessOrEqual" value="71"/>
          </Node>
          <Node id="17">
           <SimplePredicate field="HR" operator="greaterThan" value="71"/>
           <Node id="24">
            <SimplePredicate field="HR" operator="lessOrEqual" value="86.5"/>
            <Node id="34">
             <SimplePredicate field="Age" operator="lessOrEqual" value="67"/>
             <Node id="42" score="3">
              <SimplePredicate field="Age" operator="lessOrEqual" value="25.5"/>
             </Node>
             <Node id="43" score="4">
              <SimplePredicate field="Age" operator="greaterThan" value="25.5"/>
             </Node>
            </Node>
            <Node id="35">
             <SimplePredicate field="Age" operator="greaterThan" value="67"/>
             <Node id="44" score="3">
              <SimplePredicate field="DBP" operator="lessOrEqual" value="70"/>
             </Node>
             <Node id="45">
              <SimplePredicate field="DBP" operator="greaterThan" value="70"/>
              <Node id="58" score="4">
               <SimplePredicate field="HR" operator="lessOrEqual" value="78"/>
              </Node>
              <Node id="59" score="3">
               <SimplePredicate field="HR" operator="greaterThan" value="78"/>
              </Node>
             </Node>
            </Node>
           </Node>
           <Node id="25" score="3">
            <SimplePredicate field="HR" operator="greaterThan" value="86.5"/>
           </Node>
          </Node>
         </Node>
         <Node id="11">
          <SimplePredicate field="BT" operator="greaterThan" value="36.0499999999999972"/>
          <Node id="18">
           <SimplePredicate field="BT" operator="lessOrEqual" value="36.8499999999999943"/>
           <Node id="26">
            <SimplePredicate field="HR" operator="lessOrEqual" value="65"/>
            <Node id="36">
             <SimplePredicate field="DBP" operator="lessOrEqual" value="75"/>
             <Node id="46">
              <SimplePredicate field="SBP" operator="lessOrEqual" value="115"/>
              <Node id="60">
               <SimplePredicate field="BT" operator="lessOrEqual" value="36.4500000000000028"/>
               <Node id="74" score="4">
                <SimplePredicate field="Sex" operator="lessOrEqual" value="1.5"/>
               </Node>
               <Node id="75">
                <SimplePredicate field="Sex" operator="greaterThan" value="1.5"/>
                <Node id="92" score="4">
                 <SimplePredicate field="HR" operator="lessOrEqual" value="60.5"/>
                </Node>
                <Node id="93">
                 <SimplePredicate field="HR" operator="greaterThan" value="60.5"/>
                 <Node id="106">
                  <SimplePredicate field="Saturation" operator="lessOrEqual" value="97.5"/>
                  <Node id="124" score="2">
                   <SimplePredicate field="Age" operator="lessOrEqual" value="65.5"/>
                  </Node>
                  <Node id="125" score="4">
                   <SimplePredicate field="Age" operator="greaterThan" value="65.5"/>
                  </Node>
                 </Node>
                 <Node id="107" score="2">
                  <SimplePredicate field="Saturation" operator="greaterThan" value="97.5"/>
                 </Node>
                </Node>
               </Node>
              </Node>
              <Node id="61" score="2">
               <SimplePredicate field="BT" operator="greaterThan" value="36.4500000000000028"/>
              </Node>
             </Node>
             <Node id="47" score="3">
              <SimplePredicate field="SBP" operator="greaterThan" value="115"/>
             </Node>
            </Node>
            <Node id="37">
             <SimplePredicate field="DBP" operator="greaterThan" value="75"/>
             <Node id="48">
              <SimplePredicate field="DBP" operator="lessOrEqual" value="90"/>
              <Node id="62">
               <SimplePredicate field="SBP" operator="lessOrEqual" value="125"/>
               <Node id="76" score="3">
                <SimplePredicate field="Sex" operator="lessOrEqual" value="1.5"/>
               </Node>
               <Node id="77" score="3">
                <SimplePredicate field="Sex" operator="greaterThan" value="1.5"/>
               </Node>
              </Node>
              <Node id="63" score="4">
               <SimplePredicate field="SBP" operator="greaterThan" value="125"/>
              </Node>
             </Node>
             <Node id="49" score="3">
              <SimplePredicate field="DBP" operator="greaterThan" value="90"/>
             </Node>
            </Node>
           </Node>
           <Node id="27">
            <SimplePredicate field="HR" operator="greaterThan" value="65"/>
            <Node id="38">
             <SimplePredicate field="Age" operator="lessOrEqual" value="74.5"/>
             <Node id="50">
              <SimplePredicate field="HR" operator="lessOrEqual" value="81"/>
              <Node id="64">
               <SimplePredicate field="Sex" operator="lessOrEqual" value="1.5"/>
               <Node id="78" score="4">
                <SimplePredicate field="RR" operator="lessOrEqual" value="19"/>
               </Node>
               <Node id="79">
                <SimplePredicate field="RR" operator="greaterThan" value="19"/>
                <Node id="94" score="2">
                 <SimplePredicate field="BT" operator="lessOrEqual" value="36.1500000000000057"/>
                </Node>
                <Node id="95">
                 <SimplePredicate field="BT" operator="greaterThan" value="36.1500000000000057"/>
                 <Node id="108">
                  <SimplePredicate field="BT" operator="lessOrEqual" value="36.4500000000000028"/>
                  <Node id="126">
                   <SimplePredicate field="Age" operator="lessOrEqual" value="54"/>
                   <Node id="142">
                    <SimplePredicate field="SBP" operator="lessOrEqual" value="105"/>
                    <Node id="160" score="3">
                     <SimplePredicate field="Age" operator="lessOrEqual" value="29"/>
                    </Node>
                    <Node id="161" score="4">
                     <SimplePredicate field="Age" operator="greaterThan" value="29"/>
                    </Node>
                   </Node>
                   <Node id="143">
                    <SimplePredicate field="SBP" operator="greaterThan" value="105"/>
                    <Node id="162" score="4">
                     <SimplePredicate field="HR" operator="lessOrEqual" value="73"/>
                    </Node>
                    <Node id="163">
                     <SimplePredicate field="HR" operator="greaterThan" value="73"/>
                     <Node id="176">
                      <SimplePredicate field="HR" operator="lessOrEqual" value="76"/>
                      <Node id="184" score="3">
                       <SimplePredicate field="Age" operator="lessOrEqual" value="45"/>
                      </Node>
                      <Node id="185" score="4">
                       <SimplePredicate field="Age" operator="greaterThan" value="45"/>
                      </Node>
                     </Node>
                     <Node id="177" score="4">
                      <SimplePredicate field="HR" operator="greaterThan" value="76"/>
                     </Node>
                    </Node>
                   </Node>
                  </Node>
                  <Node id="127">
                   <SimplePredicate field="Age" operator="greaterThan" value="54"/>
                   <Node id="144">
